digraph Tree {
node [shape=box] ;
0 [label="X[0] <= 1.6779\nfriedman_mse = 0.25\nsamples = 90000\nvalue = 0.0"] ;
1 [label="X[0] <= 0.8568\nfriedman_mse = 0.25\nsamples = 85816\nvalue = 0.0008"] ;
0 -> 1 [labeldistance=2.5, labelangle=45, headlabel="True"] ;
2 [label="X[0] <= 0.8217\nfriedman_mse = 0.25\nsamples = 72531\nvalue = -0.0015"] ;
1 -> 2 ;
3 [label="X[0] <= 0.8212\nfriedman_mse = 0.25\nsamples = 71688\nvalue = -0.0009"] ;
2 -> 3 ;
4 [label="X[0] <= 0.8206\nfriedman_mse = 0.25\nsamples = 71675\nvalue = -0.001"] ;
3 -> 4 ;
5 [label="friedman_mse = 0.25\nsamples = 71658\nvalue = -0.0038"] ;
4 -> 5 ;
6 [label="friedman_mse = 0.2076\nsamples = 17\nvalue = -0.8227"] ;
4 -> 6 ;
7 [label="X[0] <= 0.8214\nfriedman_mse = 0.1775\nsamples = 13\nvalue = 0.2694"] ;
3 -> 7 ;
8 [label="friedman_mse = 0.0\nsamples = 5\nvalue = 2.0008"] ;
7 -> 8 ;
9 [label="friedman_mse = 0.2344\nsamples = 8\nvalue = 0.5008"] ;
7 -> 9 ;
10 [label="X[0] <= 0.8237\nfriedman_mse = 0.248\nsamples = 843\nvalue = -0.0443"] ;
2 -> 10 ;
11 [label="X[0] <= 0.8236\nfriedman_mse = 0.2117\nsamples = 46\nvalue = -0.1954"] ;
10 -> 11 ;
12 [label="friedman_mse = 0.2222\nsamples = 42\nvalue = -0.6658"] ;
11 -> 12 ;
13 [label="friedman_mse = 0.0\nsamples = 4\nvalue = -1.9992"] ;
11 -> 13 ;
14 [label="X[0] <= 0.8242\nfriedman_mse = 0.2487\nsamples = 797\nvalue = -0.0355"] ;
10 -> 14 ;
15 [label="friedman_mse = 0.1728\nsamples = 18\nvalue = 1.112"] ;
14 -> 15 ;
16 [label="friedman_mse = 0.2482\nsamples = 779\nvalue = -0.1712"] ;
14 -> 16 ;
17 [label="X[0] <= 0.859\nfriedman_mse = 0.2498\nsamples = 13285\nvalue = 0.0133"] ;
1 -> 17 ;
18 [label="X[0] <= 0.8588\nfriedman_mse = 0.2016\nsamples = 50\nvalue = 0.2202"] ;
17 -> 18 ;
19 [label="X[0] <= 0.858\nfriedman_mse = 0.2117\nsamples = 46\nvalue = 0.1959"] ;
18 -> 19 ;
20 [label="friedman_mse = 0.1748\nsamples = 31\nvalue = 1.0976"] ;
19 -> 20 ;
21 [label="friedman_mse = 0.2489\nsamples = 15\nvalue = 0.1342"] ;
19 -> 21 ;
22 [label="friedman_mse = 0.0\nsamples = 4\nvalue = 2.0008"] ;
18 -> 22 ;
23 [label="X[0] <= 0.8597\nfriedman_mse = 0.2498\nsamples = 13235\nvalue = 0.0125"] ;
17 -> 23 ;
24 [label="X[0] <= 0.8595\nfriedman_mse = 0.1814\nsamples = 21\nvalue = -0.2617"] ;
23 -> 24 ;
25 [label="friedman_mse = 0.2431\nsamples = 12\nvalue = -0.3325"] ;
24 -> 25 ;
26 [label="friedman_mse = 0.0\nsamples = 9\nvalue = -1.9992"] ;
24 -> 26 ;
27 [label="X[0] <= 0.9551\nfriedman_mse = 0.2498\nsamples = 13214\nvalue = 0.0129"] ;
23 -> 27 ;
28 [label="friedman_mse = 0.2486\nsamples = 2242\nvalue = 0.1489"] ;
27 -> 28 ;
29 [label="friedman_mse = 0.2499\nsamples = 10972\nvalue = 0.0318"] ;
27 -> 29 ;
30 [label="X[0] <= 1.6799\nfriedman_mse = 0.2497\nsamples = 4184\nvalue = -0.017"] ;
0 -> 30 [labeldistance=2.5, labelangle=-45, headlabel="False"] ;
31 [label="friedman_mse = 0.0\nsamples = 9\nvalue = -1.9992"] ;
30 -> 31 ;
32 [label="X[0] <= 2.0428\nfriedman_mse = 0.2497\nsamples = 4175\nvalue = -0.016"] ;
30 -> 32 ;
33 [label="X[0] <= 2.0409\nfriedman_mse = 0.2489\nsamples = 2327\nvalue = -0.0327"] ;
32 -> 33 ;
34 [label="X[0] <= 2.0402\nfriedman_mse = 0.249\nsamples = 2320\nvalue = -0.0313"] ;
33 -> 34 ;
35 [label="friedman_mse = 0.249\nsamples = 2316\nvalue = -0.1287"] ;
34 -> 35 ;
36 [label="friedman_mse = 0.0\nsamples = 4\nvalue = 2.0008"] ;
34 -> 36 ;
37 [label="friedman_mse = -0.0\nsamples = 7\nvalue = -1.9992"] ;
33 -> 37 ;
38 [label="X[0] <= 2.0683\nfriedman_mse = 0.25\nsamples = 1848\nvalue = 0.0051"] ;
32 -> 38 ;
39 [label="X[0] <= 2.0674\nfriedman_mse = 0.2282\nsamples = 105\nvalue = 0.1478"] ;
38 -> 39 ;
40 [label="friedman_mse = 0.2331\nsamples = 100\nvalue = 0.5208"] ;
39 -> 40 ;
41 [label="friedman_mse = -0.0\nsamples = 5\nvalue = 2.0008"] ;
39 -> 41 ;
42 [label="X[0] <= 2.1047\nfriedman_mse = 0.25\nsamples = 1743\nvalue = -0.0035"] ;
38 -> 42 ;
43 [label="friedman_mse = 0.243\nsamples = 161\nvalue = -0.3346"] ;
42 -> 43 ;
44 [label="friedman_mse = 0.25\nsamples = 1582\nvalue = 0.0185"] ;
42 -> 44 ;
}